Language model created by QuickLM on Thu Jun 18 03:22:48 EDT 2020
Copyright (c) 1996-2010 Carnegie Mellon University and Alexander I. Rudnicky

The model is in standard ARPA format, designed by Doug Paul while he was at MITRE.

The code that was used to produce this language model is available in Open Source.
Please visit http://www.speech.cs.cmu.edu/tools/ for more information

The (fixed) discount mass is 0.5. The backoffs are computed using the ratio method.
This model based on a corpus of 15 sentences and 30 words

\data\
ngram 1=30
ngram 2=47
ngram 3=40

\1-grams:
-1.0280 </s> -0.3010
-1.0280 <s> -0.2522
-2.2041 A -0.2983
-1.9031 CAN -0.2956
-2.2041 CURRENT -0.2956
-2.2041 DESCRIBE -0.2983
-2.2041 FACE -0.2583
-2.2041 FRONT -0.2983
-2.2041 HELLO -0.2583
-2.2041 HELP -0.2900
-2.2041 IN -0.2983
-1.6021 IS -0.2759
-1.6021 ME -0.2399
-1.9031 NEWS -0.2583
-2.2041 OF -0.2900
-2.2041 PLAY -0.2983
-2.2041 SAVE -0.2956
-2.2041 SEARCH -0.2583
-2.2041 SHUTDOWN -0.2583
-2.2041 SONG -0.2583
-1.6021 TELL -0.2730
-1.4260 THE -0.2816
-1.9031 THIS -0.2553
-1.9031 TIME -0.2583
-2.2041 VIEW -0.2583
-1.9031 WEATHER -0.2583
-1.7270 WHAT -0.2900
-2.2041 WHO -0.2900
-2.2041 WIKIPEDIA -0.2983
-1.9031 YOU -0.2900

\2-grams:
-1.1761 <s> CAN 0.0000
-1.4771 <s> DESCRIBE 0.0000
-1.4771 <s> HELLO 0.0000
-1.4771 <s> HELP 0.0000
-1.4771 <s> PLAY 0.0000
-1.4771 <s> SAVE 0.0000
-1.4771 <s> SHUTDOWN 0.0000
-1.1761 <s> TELL 0.0000
-1.0000 <s> WHAT 0.0000
-1.4771 <s> WHO 0.0000
-1.4771 <s> WIKIPEDIA 0.0000
-0.3010 A SONG 0.0000
-0.3010 CAN YOU 0.0000
-0.3010 CURRENT TIME 0.0000
-0.3010 DESCRIBE VIEW 0.0000
-0.3010 FACE </s> -0.3010
-0.3010 FRONT OF 0.0000
-0.3010 HELLO </s> -0.3010
-0.3010 HELP ME -0.1761
-0.3010 IN FRONT 0.0000
-0.9031 IS IN 0.0000
-0.6021 IS THE -0.2218
-0.9031 IS THIS -0.1761
-0.6021 ME </s> -0.3010
-0.6021 ME THE -0.2218
-0.3010 NEWS </s> -0.3010
-0.3010 OF ME -0.1761
-0.3010 PLAY A 0.0000
-0.3010 SAVE THIS -0.1761
-0.3010 SEARCH </s> -0.3010
-0.3010 SHUTDOWN </s> -0.3010
-0.3010 SONG </s> -0.3010
-0.6021 TELL ME -0.1761
-0.6021 TELL THE -0.2218
-1.0792 THE CURRENT 0.0000
-0.7782 THE NEWS 0.0000
-1.0792 THE TIME 0.0000
-0.7782 THE WEATHER 0.0000
-0.6021 THIS </s> -0.3010
-0.6021 THIS FACE 0.0000
-0.3010 TIME </s> -0.3010
-0.3010 VIEW </s> -0.3010
-0.3010 WEATHER </s> -0.3010
-0.3010 WHAT IS -0.0969
-0.3010 WHO IS -0.2430
-0.3010 WIKIPEDIA SEARCH 0.0000
-0.3010 YOU TELL 0.0000

\3-grams:
-0.3010 <s> CAN YOU
-0.3010 <s> DESCRIBE VIEW
-0.3010 <s> HELLO </s>
-0.3010 <s> HELP ME
-0.3010 <s> PLAY A
-0.3010 <s> SAVE THIS
-0.3010 <s> SHUTDOWN </s>
-0.6021 <s> TELL ME
-0.6021 <s> TELL THE
-0.3010 <s> WHAT IS
-0.3010 <s> WHO IS
-0.3010 <s> WIKIPEDIA SEARCH
-0.3010 A SONG </s>
-0.3010 CAN YOU TELL
-0.3010 CURRENT TIME </s>
-0.3010 DESCRIBE VIEW </s>
-0.3010 FRONT OF ME
-0.3010 HELP ME </s>
-0.3010 IN FRONT OF
-0.3010 IS IN FRONT
-0.6021 IS THE CURRENT
-0.6021 IS THE TIME
-0.3010 IS THIS </s>
-0.3010 ME THE NEWS
-0.3010 OF ME </s>
-0.3010 PLAY A SONG
-0.3010 SAVE THIS FACE
-0.3010 TELL ME THE
-0.3010 TELL THE WEATHER
-0.3010 THE CURRENT TIME
-0.3010 THE NEWS </s>
-0.3010 THE TIME </s>
-0.3010 THE WEATHER </s>
-0.3010 THIS FACE </s>
-0.7782 WHAT IS IN
-0.4771 WHAT IS THE
-0.3010 WHO IS THIS
-0.3010 WIKIPEDIA SEARCH </s>
-0.6021 YOU TELL ME
-0.6021 YOU TELL THE

\end\
